digraph Tree {
node [shape=box] ;
0 [label="PW <= 0.8\ngini = 0.667\nsamples = 150\nvalue = [50, 50, 50]\nclass = Setosa"] ;
1 [label="gini = 0.0\nsamples = 50\nvalue = [50, 0, 0]\nclass = Setosa"] ;
0 -> 1 [labeldistance=2.5, labelangle=45, headlabel="True"] ;
2 [label="PW <= 1.75\ngini = 0.5\nsamples = 100\nvalue = [0, 50, 50]\nclass = Versicolor"] ;
0 -> 2 [labeldistance=2.5, labelangle=-45, headlabel="False"] ;
3 [label="PL <= 4.95\ngini = 0.168\nsamples = 54\nvalue = [0, 49, 5]\nclass = Versicolor"] ;
2 -> 3 ;
4 [label="PW <= 1.65\ngini = 0.041\nsamples = 48\nvalue = [0, 47, 1]\nclass = Versicolor"] ;
3 -> 4 ;
5 [label="gini = 0.0\nsamples = 47\nvalue = [0, 47, 0]\nclass = Versicolor"] ;
4 -> 5 ;
6 [label="gini = 0.0\nsamples = 1\nvalue = [0, 0, 1]\nclass = Virginica"] ;
4 -> 6 ;
7 [label="PW <= 1.55\ngini = 0.444\nsamples = 6\nvalue = [0, 2, 4]\nclass = Virginica"] ;
3 -> 7 ;
8 [label="gini = 0.0\nsamples = 3\nvalue = [0, 0, 3]\nclass = Virginica"] ;
7 -> 8 ;
9 [label="PL <= 5.45\ngini = 0.444\nsamples = 3\nvalue = [0, 2, 1]\nclass = Versicolor"] ;
7 -> 9 ;
10 [label="gini = 0.0\nsamples = 2\nvalue = [0, 2, 0]\nclass = Versicolor"] ;
9 -> 10 ;
11 [label="gini = 0.0\nsamples = 1\nvalue = [0, 0, 1]\nclass = Virginica"] ;
9 -> 11 ;
12 [label="PL <= 4.85\ngini = 0.043\nsamples = 46\nvalue = [0, 1, 45]\nclass = Virginica"] ;
2 -> 12 ;
13 [label="SL <= 5.95\ngini = 0.444\nsamples = 3\nvalue = [0, 1, 2]\nclass = Virginica"] ;
12 -> 13 ;
14 [label="gini = 0.0\nsamples = 1\nvalue = [0, 1, 0]\nclass = Versicolor"] ;
13 -> 14 ;
15 [label="gini = 0.0\nsamples = 2\nvalue = [0, 0, 2]\nclass = Virginica"] ;
13 -> 15 ;
16 [label="gini = 0.0\nsamples = 43\nvalue = [0, 0, 43]\nclass = Virginica"] ;
12 -> 16 ;
}